solver_type L2R_L2LOSS_SVR_DUAL
nr_class 2
nr_feature 200
bias 1
w
0.001740867592282342 
-0.003178135681442163 
0.0002802843375731003 
0.001787661198823477 
0.001950944773207234 
0.005387026032614161 
-1.744483633705083e-005 
-0.001072394955956116 
-0.003486544632683056 
0.002753744448386391 
0.005897055792445995 
0.005498158973302554 
0.004874289171185621 
-0.0004344812898675722 
0.004437752637862519 
-0.0005629820535231375 
-0.002520717271899809 
0.002690869037592153 
0.00182170473508451 
0.00211356683989664 
0.003940958313814514 
0.001295031343629539 
0.003550434201119801 
0.002620467211917177 
0.004736574287357304 
0.002874329308281525 
0.0001933903094394331 
-0.002826617348997074 
0.002766618552490889 
0.0008039987010908691 
0.00338363766728986 
0.002975856547950512 
0.003623756673648465 
0.001471454602046801 
0.003463396695040816 
-0.0009548605689061558 
0.001213456415546467 
-1.251381018216775e-005 
0.00129084270282829 
0.004823426622744569 
-0.001932852236424376 
0.002971358676696507 
0.00331884422708146 
0.008146787716930254 
0.003541535292555171 
0.001697864061555891 
0.001121988385276354 
0.002503505047683111 
0.001029650460259172 
0.002256464942857706 
-0.000463203118668206 
0.002953838591867886 
0.001482092063298208 
-0.0006513132270859342 
0.0002718076892344729 
0.004561458630281354 
0.002931870321474171 
-0.003425656226776026 
-0.0007209451404200553 
0.004471267745626574 
0.003734755579304295 
0.002250201395564473 
0.002961591697973508 
-0.003976544672230835 
-0.002100284733350781 
0.006185278191276826 
-0.002803310480515976 
0.0009088776492944354 
-0.0003415784712278215 
-0.001932604031180227 
0.006233264357087556 
0.001376865352119103 
0.004340026654111592 
0.005693808755722888 
0.001207461092440327 
-0.001028860268091764 
0.002825776522900838 
-0.0051119934093302 
-0.002229343314589914 
-0.002865682467944797 
8.440538284562708e-006 
0.00711699839958842 
0.005455635311234421 
0.004043004130438571 
0.001329474030656173 
0.00166288162860844 
0.006572819354412336 
-0.001555474530531435 
0.003054578748296117 
0.002969731975599208 
0.003041953025721583 
-0.0003429734934499001 
-0.0003296925158259528 
0.003515560493416755 
0.005783700598060295 
0.00321301391385148 
0.0008449482794569297 
-0.0008152842298156315 
0.003877249169408141 
0.004468566899227595 
0.0006939745751465704 
-0.001959414748598643 
-0.002082618013362271 
0.001664279623048665 
-0.002716587448572316 
0.002871428664912726 
0.003017261426693745 
0.0004542663806895197 
-0.001304531758431355 
-0.00288695301059084 
0.002942492752615177 
-0.001890855770180717 
0.0006861268041300453 
0.004072940564795802 
-0.001191333364889011 
-0.0005762232821743061 
0.002172508309055345 
0.002384869083978357 
0.0004387829182494453 
0.002738715943471075 
0.001557565037887387 
0.003151033010046734 
0.002874624099047863 
0.004527021285545944 
0.0003493998329044848 
0.001027692297513643 
0.002597134170496026 
0.001829601270826711 
-0.003489253694299392 
0.005022259089973585 
0.001669981707710572 
0.004848848344979215 
0.005922915840198498 
0.0009399150471551737 
0.0004856047231556871 
0.001610004614882732 
0.0008470573023351838 
0.001276149000072741 
0.003923051060539914 
0.002445167722445624 
0.0009342746822821656 
-0.002355953930667188 
0.0001892906451465862 
0.001848416681092544 
0.003048529052939717 
0.001383963138867189 
0.002835180067969379 
0.001079285176526874 
-0.002139426008506999 
-0.002203261164078937 
0.0001497114202530157 
0.002574706842299302 
0.0024950386865217 
0.001264393252607936 
-0.001376213643688472 
0.0007398248169909769 
0.003424533022069518 
0.001826944628984733 
-0.0002615032501236628 
0.002230604344833811 
0.003990360641143046 
0.003949167988939933 
0.002919514115349004 
0.0007600176822636174 
0.001112354800736774 
0.002350697801389582 
0.00200156434750933 
0.0003626127850722224 
0.004433740949944081 
-0.001740954475624726 
0.001146795824862515 
0.001111131746586602 
0.005417418816450605 
-0.0001267334095506201 
0.002147844606828033 
0.003898629692112407 
0.003385133238103973 
0.002131539027493936 
0.002221881103275407 
0.004940217702500593 
-0.0014094536836649 
0.001082869926183433 
-0.001771774125786512 
-7.262832034084615e-005 
6.352313319717257e-005 
0.004352583965620641 
0.002374736880467871 
0.0007919373677173555 
0.001647638005733833 
0.0039879939829062 
0.001076471412379593 
0.004624618897973323 
-0.0002149326301264539 
-0.002324526277122497 
0.00314109396418169 
0.002869876578637687 
0.00334927103861507 
-0.0001383664885966325 
0.003892663779931258 
0.005373552739341096 
-0.003558661452080634 
