solver_type L2R_L2LOSS_SVR_DUAL
nr_class 2
nr_feature 200
bias 1
w
0.002049949471024581 
-0.006519408973159175 
-0.0005838653501163804 
0.002020669503263262 
-0.0005033792976375761 
0.002501446251459214 
0.002401793735996863 
0.003731166333560227 
-0.004450534860202798 
-0.0003735651502837226 
0.003669336024516752 
0.004888486098734489 
0.007050584747431031 
-0.004507826728256405 
-0.004359696409510255 
0.006234424868755999 
-0.003095144124202599 
0.005048192205743489 
-0.0001184890290016121 
0.002821681648583398 
0.008864879313181372 
0.00460076922598555 
0.001305359837059358 
0.002675307686810853 
0.007051832285189248 
-0.006936476043193191 
0.004070692933627558 
0.0008103191485010425 
0.0003958269567454584 
0.003120564443028929 
0.006915070243678931 
0.003971613460475188 
0.005703780013630055 
0.003461089480101317 
0.002686053058136429 
-0.0007770064479784292 
0.003188289510547534 
0.003379071506144565 
0.006630965019874764 
0.009518731630723393 
-0.003867245071061828 
-0.0008349972320892072 
-0.001220400643109333 
0.01238696587254719 
0.003519988905968438 
-0.0004021900747794373 
-0.003001235645415399 
-0.003209493646083379 
-0.001295335194280343 
0.003944450120943446 
-0.001947642784904488 
0.001105989081022367 
-0.0006095498381031428 
0.005444761627965201 
-0.001671214623742233 
0.0002003436784296992 
0.005943891522407991 
-0.004549683736954958 
-0.002052809898757182 
0.001761317316972013 
-0.001181811110468838 
0.00120500586079185 
-0.005952430288366041 
-0.003277512775945764 
-0.003727054216299149 
0.001261086972449496 
-0.0005088936832783669 
0.003509898777063166 
0.003762430797204947 
-0.006808838309458401 
0.007293936711865093 
0.001567855343320671 
0.00575945947131199 
0.008544752794048737 
0.003431244984937672 
0.002512798739125114 
0.003985761845662364 
-0.003433495985157459 
-0.004912991954991347 
0.002492306288270199 
-0.002910230165662549 
0.01357346382263485 
0.006068227166081177 
-0.007254542936442465 
0.001879887222794688 
-0.001894500628676386 
0.005582401025372212 
-0.00341585559396338 
-2.314632361030021e-005 
0.002547866738822666 
0.007418214172510896 
-0.0007856349119741637 
-0.0008042016503829923 
0.002266922653176483 
0.006558512621288335 
-0.003544205449764303 
0.003796053628748082 
0.001602538161289655 
0.001425576421243418 
0.0004826332131608533 
-0.001274926896038375 
0.001931377226317997 
7.526381598825932e-005 
4.070021155309215e-005 
-0.003009378926822431 
-0.0009846148383749578 
-0.002022308723615961 
7.287882576888269e-005 
-0.001220068913305706 
-0.001105037312430804 
-0.00193090430392216 
-0.0006977014130683812 
-0.004051400163512661 
0.0006198913758621939 
-0.007561123623043782 
-0.003937813029021699 
0.003654228374236437 
0.004809177377940756 
-0.005667145915855818 
-0.002680785641876781 
-0.001172412063379201 
0.002093472384286282 
0.002873890080606266 
0.004370116055033639 
-0.004118642296540967 
0.003492873238258879 
0.002593128009249171 
0.0005700389398770366 
-0.01201924073406238 
-0.003278280360042707 
0.008245812473957037 
0.004356304429286901 
-2.077001626730123e-005 
-0.0009654834460727079 
0.007216926598754461 
-0.0003633754015563392 
-0.003090939303872703 
0.0006560642321594663 
-0.000123082760422444 
0.001110124659378644 
0.002870567872356355 
-0.00368986793688026 
0.007171618527560954 
-0.001452189604167287 
0.0005407776490732585 
0.009931308640153555 
0.00494281468669099 
0.01021743500085894 
0.003032329749542203 
0.002325686564771201 
0.001878364313592292 
-0.002767364705835865 
0.0009445788273235092 
0.001632622495494057 
-0.001794018451903763 
-0.001840142189873652 
0.01113064502048289 
0.0001795494322489752 
0.006469504375092876 
0.00552248431589184 
0.005845039884019786 
0.006408167505644345 
-0.0004465462421037539 
-0.001968526119240069 
0.001266196038577954 
-0.001423643135246585 
-0.000661339492018077 
-0.0006810745610812846 
-0.004606166463070938 
-0.001293508592579744 
0.006047621411878235 
-0.005175055149293482 
0.002354609165722547 
0.006555123848413622 
-0.001813484569128069 
0.007265692710599705 
0.0004654299053604354 
0.000475673363778089 
0.00165637889492421 
-0.003047871789234312 
0.0006950724446930189 
0.001452010231580097 
0.00302483803959093 
0.001323451243576358 
0.001226302872542758 
-0.002913195302989128 
-0.002850532536829589 
0.00708032066057641 
0.003482607057262967 
0.001693004735040621 
0.00508634987595656 
0.001501394635818281 
0.002238188240651586 
0.000220066107233172 
-0.001863040352226891 
0.004422475488092252 
0.002621429912117072 
0.001101039536769778 
0.003185879052708591 
0.007463744635883927 
0.04918633849243626 
