solver_type L2R_L2LOSS_SVR_DUAL
nr_class 2
nr_feature 500
bias 1
w
0.002605162206060179 
-0.001472091965431503 
0.001193909905203371 
0.002144739338288731 
-0.001749377558406725 
0.001323436122699688 
0.0003507390701459222 
-7.846765362678149e-005 
-0.003463208973392357 
0.0004421144499594529 
0.001833473111739364 
0.0009508447766370538 
0.002989971918963363 
0.001191814765875848 
-0.00265668426119822 
0.001561476981010275 
0.0002848676390002454 
0.003285433517746234 
0.000200699712007701 
0.0006397172911964012 
0.001405398966589253 
0.0001959036500346391 
0.001537527102436575 
0.0007788006262410897 
0.004019767494690636 
-0.0024694510263496 
0.003423289606299218 
0.0008691782177177774 
-1.494654736572215e-005 
0.001525254422513723 
0.003862836265029235 
0.002125036172182977 
0.003266205901900585 
0.001357821321069907 
0.001135728574558419 
0.0006902912506074098 
-0.000234971786451484 
-0.0004180360196656417 
5.023953580813245e-005 
0.004326810129344937 
-0.001883310704330575 
0.0008255898976833249 
-0.0009438205747517769 
0.003288507826973241 
0.002529936765433307 
0.0010847424981391 
-0.00205164848261108 
-0.001584694079820821 
0.0002626000924347976 
0.0006575087586658033 
-9.681664391317167e-005 
-0.0002084149741719356 
-0.002341690606435181 
0.001129677775070529 
0.002612596493676696 
0.0002781724734924659 
0.0007018836048131403 
-0.0006693293687038051 
-0.001689164528106299 
0.0001413106960752519 
-0.0003423310604756451 
0.0003705327339805738 
-0.002490794511524049 
-0.001162928283000122 
-0.001040245132462882 
0.0002407578728641261 
0.0003875816913937285 
0.0002484622104781383 
0.0009213824589765286 
-0.00230355720975048 
0.002064485817309516 
0.001028050271170841 
0.002098180124121605 
0.001640539955161992 
0.001119459477564629 
0.001253363079674738 
-0.0004769869605310309 
-0.001666160029720203 
-0.001182598366599691 
0.0009072080644154841 
-0.001329412492817096 
0.004444539370503616 
0.001849727135507289 
-0.001166981838479384 
0.000791091791797372 
0.002032091724762388 
0.002830826400909323 
-0.0003792990162779232 
-0.003479875127943903 
-0.0005350900717210162 
0.002043201654662796 
0.0001965893582635767 
-0.0001371238824561785 
-0.0008106382210100625 
0.00148435241086275 
-0.0009440209251834071 
0.002862802827119041 
-0.001135645892834673 
-0.00120237267417065 
-0.001949857285761335 
-0.0001382100004043848 
0.0008609710233836159 
8.152100595777721e-005 
9.805102882013882e-005 
-0.002266413982942071 
-0.001062986924594547 
-8.899800980990754e-005 
0.001314967619101446 
-0.0009440986513884611 
5.731579824522643e-005 
-0.0006809542091505442 
-0.001817191194984125 
-0.000815324093139249 
0.002187084536499781 
-0.003104183103466754 
-0.000345494388935753 
0.001296356189059482 
0.001332288495174361 
-0.004059341146642911 
-0.0006601083065536066 
-0.0007414283141487853 
-0.001588524020555137 
0.0006505036490025935 
0.001801677937673249 
-0.001332010374081228 
0.00334872919055607 
0.001171378045175447 
0.001327206544745418 
-0.0008719507427481622 
-0.001574815325125707 
0.003045479088411038 
0.005625040976034036 
0.0003761425526094415 
0.0006416507983289115 
0.00297611723465161 
0.001831797407817577 
-0.001786270955094395 
-0.001904188321943547 
-0.0002729988479236507 
0.002467158817714775 
-0.0002538585743375627 
-1.322889416268927e-005 
0.002320125764725968 
-0.001825737842011375 
-0.0004659617758831124 
0.003638263609047125 
0.001716028885044811 
0.003009364430980831 
0.0007368110088194897 
-0.001032640776866736 
-0.0005314521713460505 
-0.002073444587547883 
0.001287748355306162 
-0.0004840814687198754 
0.0009138720750723853 
-0.001928246813570929 
0.002651690972638656 
-7.547095061616201e-005 
0.0029178714436312 
0.002688902856128762 
-0.0006675496327761262 
0.002774992255550119 
0.0004055250796016525 
-0.0024342404107424 
-8.37081284493154e-005 
0.001424348968798708 
0.001813007892809583 
-7.622664319043213e-005 
0.0008773208214135538 
-0.000840643242220864 
0.001177267907741954 
-0.001273888517566433 
0.0007652225428271607 
0.002426791638008896 
-0.001509641635589666 
0.004345171495561568 
-0.001131326905201481 
-6.744896765516797e-005 
-0.0003594633364584458 
0.0005346180716076258 
-0.001628418447709459 
0.0006598187483046005 
0.0007358552159980505 
0.0004967276222277877 
-0.000763093376100163 
0.0005306054443928539 
-0.001472570874400998 
0.001046256597005959 
0.002483566882364665 
-0.0009854097900840575 
0.0006824979958834789 
-0.0003784313169985191 
0.0009843429438696736 
-0.0002816711580461689 
-0.0006351561192819331 
0.001598790158404059 
0.002260165671630609 
0.0006400771093172772 
-0.0009409650536458136 
0.003777982475225834 
-0.0007860136282481651 
0.002970336618985869 
0.0005406346857829075 
0.0007885133168467327 
0.001524677783131273 
0.003945597129092131 
0.003275855156501855 
0.0005793337601484919 
-0.002052637506585683 
-0.0005796744964655264 
0.004668184590756228 
0.001456920117274799 
-0.001829203892720271 
0.001750949964497285 
-0.0001181639345420844 
0.0008476211950812182 
0.000303389423924617 
-0.0002720875621791807 
-0.001345350867740706 
0.001392826794368624 
0.003365762953674832 
0.002141111795051495 
0.0001684079693459364 
0.002049852372826755 
0.001933734837462584 
0.001620103548819295 
0.003848836436884468 
-0.0006519348008070052 
-0.0008651359574649852 
4.121268765844798e-005 
-0.0002948217230016978 
-0.001210918081437684 
0.0003932962052382394 
0.002421309547640413 
-0.0004663403454421675 
-0.002173833256569554 
0.003214893791300685 
-0.0008369814489583905 
-0.0003184643436498925 
-0.001683022221859073 
0.0008046068199111757 
0.001316750672489298 
-5.496886272042534e-005 
-0.002782045576354208 
-0.0008814255744881731 
0.001796209779397872 
0.001700762150430318 
0.001881251979906568 
0.0006794150769523206 
6.21999975467151e-005 
-0.001561335966700881 
-1.821342467499658e-006 
-0.0008574249901958335 
-0.0006696151244284204 
-0.002201447731534094 
-0.002307732582258395 
-0.001315746720452059 
0.002824972803616357 
-0.001009688983533697 
0.0002347155036940288 
0.0005558512296471466 
0.002293225898223852 
0.001091322555215698 
0.004713499560288406 
-0.002212353868797088 
0.00170030981595098 
0.0007555921385385295 
-0.000885708472852782 
-0.001772538919836531 
0.002387999395252449 
0.001790139262154665 
-0.004658628275747407 
0.0006075521482066035 
-0.001497968271097847 
-0.0002533123945563971 
0.0007118040262430449 
0.0001932333089999665 
-0.001600361587903945 
0.0002855075920941781 
0.00124128542792171 
0.001385506144084131 
-0.0001398554814062079 
0.001075767067962076 
0.0007143914631058003 
-0.0004806289688545247 
-0.00173019176353133 
0.000212441252338061 
0.000703257668474831 
0.0001097189373243031 
-1.720603979063054e-005 
-0.001082597647150342 
0.003370572907980223 
-0.0005378091352165564 
0.000656800149605375 
-0.000532684839681119 
0.0001538438853471965 
0.001445185884839459 
0.001669077211490679 
-0.001130420612381501 
0.0009064127367975756 
-0.0003024065417510699 
-0.0004326678727770649 
0.002473090125026581 
-0.001013881107054315 
0.001174999183423075 
0.00174940157261738 
0.002129005740492941 
0.001744246737810397 
0.001555610296947044 
-0.001868030423044575 
0.001694667628994438 
0.001180941948212399 
-0.0003384463247659496 
0.000156611315496443 
0.001986207751783147 
0.005724136538637812 
-0.001014342645068951 
0.004161541066055778 
-0.000789083537791291 
-0.0003337970619524984 
0.002809452323759541 
0.002722443682275564 
0.0005439710160439719 
-0.0004279153691394782 
0.0007526732280038493 
-6.143559351224582e-005 
-0.002196481757826111 
-0.001954303669661267 
0.0002716038053974922 
0.001730703089617006 
-0.0009780691126774598 
0.001687142507490198 
0.003808628178377112 
0.000839648646186886 
0.002615495964182224 
-0.002863840283493402 
-0.0002000123161701871 
-0.0008046993134804906 
0.000667158004618861 
0.0003372262195252452 
0.0002732416043761785 
-0.002471328948211941 
0.0001566901680276102 
0.0004807036977722124 
0.001400958800622671 
0.00187715296378951 
-0.0006001379706036187 
0.0005973651138337257 
0.001431407212801983 
0.005327920892087485 
-0.001633950236274221 
-0.001938822525749577 
-0.0007775313827548838 
-0.001261409740557187 
-0.0003948479478055902 
-0.0003172428080099547 
0.002263911924278274 
0.0005068955464824282 
0.002677603529554166 
-0.002346514676768802 
-0.001566809835778487 
0.002535247195684115 
-0.001449720990948347 
0.002329225885083865 
0.0004210446112108766 
0.001499202581277419 
-2.783888294125558e-005 
-0.001811360689235398 
-0.002704587799854568 
-0.0008706770793824335 
-0.001230965191611267 
0.003031620013968557 
-0.002391887195278595 
-9.267269432091334e-005 
0.000266853800769517 
-0.0002286990163569764 
0.0003773100408423015 
-0.002615899448396195 
0.001385337504644116 
-0.001446722088664313 
-0.001025023595899365 
0.002273844381815133 
-3.114252921102228e-005 
-0.0005625438034246383 
3.094849939184497e-005 
0.0003912642047494195 
0.002620015796863886 
-0.001018203271337412 
-0.001478280756628229 
-0.0004230630581522384 
-0.0004310539013829823 
-0.00185877714070625 
-0.0003469331383689908 
0.002222061675546858 
-0.0005135782125866714 
0.004598128080857131 
0.003233801657658935 
0.004009695722682436 
-0.001208420198633167 
0.002067307497117762 
0.002663896421150825 
0.001958675117946425 
-0.002643414340374418 
0.0006064300529885675 
1.739230188498241e-006 
0.0004822555347317731 
0.001066209039809392 
0.002976340324013392 
0.0002502610850205078 
0.000728311570772182 
0.0007126759536257385 
-0.002262457534091425 
0.0002886236984353326 
-0.0006295121779181293 
-0.0003722022929604411 
0.002243069264750704 
0.001299602027892652 
-0.001855357867440572 
0.0005140216292871075 
0.002597882458883753 
0.001162640062537186 
0.0009422160445958062 
0.001201029044525468 
0.0033363117673962 
0.0004951899354902913 
0.00228602753051162 
0.001865615876320911 
0.0006335097744041983 
0.004461412518401789 
-0.0002958989907655057 
0.001157244109442636 
-0.003842450386495464 
-0.001467104902561963 
-0.002291058674424038 
-0.001359546106812545 
0.001633860097881385 
0.001745602448261993 
-0.001306708184247726 
-0.0006292925183246526 
-7.068866564059419e-006 
-0.002548109822781161 
0.001766399057308826 
0.0002128448078300415 
-0.001432722745251132 
-0.001088339188646447 
0.001954150425853544 
0.0009054532444743234 
0.001435038886746492 
0.0007112506803623181 
0.001107023580637897 
-0.001924038608685806 
0.0003014170380030285 
1.817255344604322e-005 
0.0008269866626449576 
0.001637923980242403 
-0.002310707664954007 
0.0004438102202628633 
0.002514910837368378 
-0.0005432659105068842 
0.001446467735554032 
-0.00246814684271538 
0.0002209281186630151 
-0.003155142374028704 
-0.0006220638926040524 
0.0030603762417604 
0.0009688040426069092 
-0.002012639088856971 
-0.001641430794295916 
-0.001860534122687048 
0.001196433762286324 
-0.001837430041241428 
0.0008270955577951972 
-0.001169602750806934 
2.65085828195483e-005 
0.001544438578499803 
-7.983352584739467e-005 
0.001036019595442713 
0.0007561391702774874 
0.001520169850175026 
-0.002014239832054699 
-0.001736088688724359 
-0.001555710749651749 
-0.001665361197165054 
-0.001637702157491784 
0.001631153232914698 
0.004049874047225024 
-0.001228103760345923 
0.0009491789809335045 
0.0002406497679497205 
0.001434977456407217 
0.001335371072491472 
0.001797888643218709 
-0.0006044168083831356 
-0.004902074316991959 
0.003976502020241338 
0.0001355233348498881 
-0.0008970680310158709 
0.000128434762944971 
0.00030107007872832 
0.0007412019150243649 
0.03234364097191275 
