solver_type L2R_L2LOSS_SVR_DUAL
nr_class 2
nr_feature 500
bias 1
w
0.002614424181136787 
-0.001263899781312691 
0.001176853648970056 
0.001337888719553897 
-0.00101344044061725 
0.001080949272712622 
-0.0007599125301275103 
-0.001566990692356626 
-0.005612036535450196 
0.0007763647188360081 
0.002752688103056981 
0.002509446446425768 
0.003616621307520941 
-0.0004441468157957035 
7.492634707004078e-005 
0.0008916282454711916 
-0.000253261344429788 
0.0012667487038444 
0.0007213811047151121 
0.000584708100406799 
0.000306959729632193 
-2.035618299635387e-005 
0.001626377398542689 
0.0009363178805822339 
0.002948781349926091 
0.0002498420782423684 
0.0005500270468316948 
-0.0006494705909348682 
0.001192498722402708 
0.0009823264434303319 
0.001928384315523621 
0.003321298828801261 
0.002352426245908177 
0.0002750006984774855 
0.0004048130985910043 
-0.001668246790787011 
0.001487328276330092 
3.340644152172541e-005 
-0.0006988538453980235 
0.00264404535862526 
-0.001660398085138829 
0.001830707808308397 
0.001707907597965669 
0.003509143347686815 
0.002136807666747426 
0.0001127921215547888 
0.001778449039989992 
0.0003973696779000191 
0.001223403903598528 
-0.0002294588193556762 
-0.0002184399609493439 
0.0006920375938489192 
-0.0002500256845091261 
-0.000426933979800025 
-0.0001004139700393026 
-0.000409703653132582 
0.003234500956103735 
-0.000812788996162925 
-6.239979107910006e-006 
0.0005413402173191207 
0.0009978188814227889 
0.001187401952379018 
0.002112746705826906 
-0.002260913324836196 
-0.001659453243072217 
0.003086822865290602 
-0.001581208966550528 
0.001488652810686538 
-0.0005972177151875937 
-0.003060917621038408 
0.001678516450132472 
0.001520473682417047 
0.001966219375210702 
0.004595608371439599 
0.001112167083255031 
-9.899911999344109e-005 
0.002174569708327937 
-0.003661835818578415 
-0.002804552577730428 
-0.002879254295678578 
-0.0008441398389024955 
0.00315331636923552 
0.003615850604559958 
0.0004613243528092508 
0.001116053771147187 
0.002200576109054272 
0.002220246958632557 
-0.0009247645924586413 
-0.001922775901341873 
0.001406722521090398 
0.002428793714203375 
-0.0008353874712068318 
-0.000765826633412635 
-0.001185196070313031 
0.002850015203414008 
0.00256890761460745 
0.001880822576253037 
-0.001899213785917481 
0.002805623061585179 
0.003114159111906259 
0.0006472169493125273 
-0.0003446358550056556 
0.0008272012637238598 
0.0009978911545506625 
-0.001138749222009555 
0.0007636149887827136 
0.0003190758643446401 
0.0001244951794580472 
-0.0001661704251035895 
-0.003042643153380162 
-0.0008401456884493842 
-0.001342690131929013 
0.0009169104801507456 
0.001457476730243217 
-0.001926881283369534 
-0.000149468967434895 
0.001845092214945306 
-0.0004686490302627312 
-0.001128680894681623 
0.0008298562417599503 
0.00105275375656823 
0.00147054344381228 
0.003136255316251119 
0.00424178433708677 
-0.0003695684185233207 
0.0009778018921549653 
0.000318420215340312 
0.0002846728342599034 
-0.0008229653389717151 
0.001408175836999388 
0.002845839323728019 
0.006462736319942868 
0.003249841743223088 
0.002799762352130509 
0.000439042080545322 
0.002813107986342101 
0.001311817524740016 
0.00122586330367399 
0.001513688297838619 
0.0005525807771752713 
-1.700905723336665e-005 
5.441696026381286e-005 
-0.0001414460972361757 
0.000916341540801566 
0.0005352583670685076 
0.0007106010474533635 
0.001130596661481162 
-0.001006597133651421 
-0.002855871175137589 
-0.001867137436433331 
0.000816301041250733 
0.0003027190036456308 
0.002270333078722838 
0.000995406272755508 
1.613981070350419e-005 
-0.0009468557835438064 
0.001161892955551907 
0.0004573778233833249 
1.93262968704838e-005 
0.0009773022261960612 
0.001066436745473102 
0.002364113684764118 
0.002257806861870105 
-0.001389923938325398 
0.0003725237491809997 
0.001366923038854325 
0.002449589706455447 
0.0009869620312033603 
0.004199612004727671 
-0.0006828913233250069 
0.001106479658648222 
0.0009909416119465474 
0.002122718553267952 
-0.0003478992610689801 
0.001129713306707562 
0.005108587768901567 
0.0008194439196505427 
0.0007371318512327206 
0.0003371664777810032 
0.002201593052201203 
-0.0008453585370636733 
-0.0009611849470325523 
-0.000384563960647022 
-0.001535733691341551 
-0.0005517189744170037 
0.002041478337671748 
0.00017545812771416 
0.001427326729579888 
0.002633398561767754 
0.001218103923455955 
0.001578368127599233 
0.001599476686811997 
0.0003167213827787553 
-0.001017126586960768 
0.000474870757930076 
0.00153278735917607 
0.001313759878919915 
0.001485771192940418 
0.001927059415068355 
0.00322338017259163 
-0.0009333747801734334 
0.003555708368586459 
0.001596889536813054 
-0.0003597639877869259 
0.0007194534987191333 
0.003511402109609577 
0.001106971262134249 
0.0001869910299758354 
0.000290375015388559 
0.001771799249627151 
0.003644056110194333 
0.001035557330613607 
0.002442289572553691 
-0.000265173207505303 
-0.0005800179449936107 
0.0009217647914449637 
0.002967495968107593 
8.907810416372393e-005 
0.001311186887883266 
0.0007279328923608641 
0.001232292605398714 
0.003764052704385186 
0.001336748876896526 
-0.002631455412016308 
-0.0009138440525073828 
-0.0001893983387710927 
0.00390186171102783 
0.0006733394075618671 
-0.001611736413983418 
-0.0002377240221160322 
0.0001104415909618001 
0.0003373702870130116 
0.001641363040414891 
0.001293867072043476 
0.003402546708065364 
-0.003153604432977936 
0.0002569618842471533 
0.001060463472635636 
0.001213178830469504 
0.001487565980486828 
0.002066795871288383 
0.002730248367241637 
0.000603929474674968 
-0.0007642228154860994 
0.001781257021235545 
-0.0004706349531334094 
-0.0004030967895235289 
0.001474485068375805 
0.002019067926100776 
-0.0001203068358159014 
3.113492297295356e-006 
0.0005408577830161899 
-0.002785656378472691 
0.0002962726734118604 
-0.001047717405988731 
-0.0001333763173020898 
0.001659161696509777 
0.003610414051081835 
0.0008879823825875689 
0.0002815136274828068 
0.001119973769444101 
0.002913166130347209 
0.002860839540021754 
0.003990593160649252 
-0.001529954341662076 
0.001320419407738797 
-0.00082313609691137 
0.002404947204027051 
-0.0008949323033372203 
0.002545021990982655 
0.001717943986066685 
-0.0006971610661187036 
0.00231958091859971 
0.0002881549375444366 
-0.0002571561442136507 
-0.001237560670968238 
0.002900608225487241 
-0.000817567024622426 
-0.00142836478287216 
9.782613697696893e-005 
0.0003261681122797812 
0.001326244579610851 
0.0007387546584253009 
0.001718506230548474 
0.0006286257372368127 
0.00114439311493381 
0.0008396620161311858 
-0.00159114148647417 
-0.0009009673286398726 
0.001407577268699247 
5.2654386152383e-005 
0.003482491935128033 
0.001077348301113959 
0.0002149289359256147 
-0.001387975474957114 
0.0007821847050728689 
-0.002441586137908249 
0.002598123366194804 
0.0006448637102140111 
0.0001765696055741777 
-0.001631022567143885 
0.001990202090286923 
0.001908026233603102 
-0.002301644870599717 
0.003043661400240283 
0.001213927492620288 
0.0003141084324435197 
-0.001461823687595186 
0.002635949109900103 
-0.00137489594507218 
0.003578953996222509 
0.0006301582775098219 
0.003374988338920588 
0.0002084301900889632 
-4.46203279615068e-005 
0.003927872156617354 
-0.0001495578936843642 
0.004609098813287749 
0.002641972000103752 
0.001647657077933135 
0.002068809019682051 
0.002207826882839669 
0.0005596144540824485 
-0.001658095692073935 
-0.001212583344791502 
0.0002878345468843371 
0.002602349050812003 
0.001498112157909103 
0.0008833719301300267 
-0.0006436878663416651 
0.000455778536649397 
0.003447737043958404 
0.003577738958401979 
-0.0008210432734321838 
0.003614927634195696 
-0.001547851316749247 
0.0009359642289094413 
-0.0007988042574346794 
0.0007449697273710899 
0.001883833693530887 
0.0001802969251663417 
0.002121059970563762 
-0.0001132862869333302 
-0.0005618620794531642 
0.003441747608950622 
0.003617281529240981 
-0.001177960605165011 
0.0003023161185411942 
-0.001026912055477017 
0.001869307715682101 
0.001546314148411062 
0.0005522624005197278 
0.001388167710672025 
0.001597524703909956 
0.000842085321546492 
-0.001417521969193216 
0.001324994176607578 
-0.001265523095765682 
0.0006101200255231605 
0.0001832403913341332 
-0.0006017858887806263 
0.000814425445264487 
-0.0002196772832231774 
0.001300659614279639 
-0.000747409060098791 
-0.0007388798299437707 
-0.0008020728972800245 
-0.001289936632975333 
0.001250039895148947 
0.0008183759401799029 
-0.0006678630266648534 
0.001796913842142573 
-0.0003948077223593612 
-0.001265065556269838 
0.0007857429323402519 
0.0009016603318566211 
-0.002722400191801875 
0.001615638661697688 
0.0004603773224447304 
0.0006326330401973011 
-0.000234038540676119 
0.000731902584100517 
-1.879174318690593e-005 
-0.001696420899731151 
-0.001123970859133815 
-0.0006006764873643408 
0.0005396437633142235 
-0.002354829495846894 
-0.00132746451816014 
-0.0003335198122750636 
0.001559634284920335 
-0.0003471563391654555 
0.0008661511905751529 
0.000695049291741742 
4.122986413087891e-005 
0.0008333840780250955 
0.002835456803859915 
0.001813436960228738 
-0.002262467795384289 
0.000619744222790096 
-0.0007328362187294644 
0.001633789996746061 
0.0009778920091426209 
0.001258745696581593 
-0.0007327347404525504 
0.001173134213463041 
-0.0001120965993590384 
0.002989666122326585 
-0.0005279975740939165 
-0.0006087307222369169 
0.0006620533241124335 
0.0002943800469024194 
0.001523781238335323 
0.0002512760366895166 
-0.002945546857730055 
0.0005809885168859898 
0.002009325536232276 
0.0006812939252709168 
0.00282975568416363 
0.005273403283199972 
-0.001065267635344766 
-0.0009976700167871264 
3.505251838452074e-005 
0.002908551030203454 
0.0002276653453263907 
0.002022350310928148 
0.0008654192120557809 
0.002236930742375254 
0.0003504454590949298 
0.0005388169376921593 
0.0008968732955437291 
-0.0004382557364141605 
-0.0003996967866120859 
-0.002633157194464933 
-0.0004950629852018946 
-0.000977768646069709 
0.000776368090062961 
0.001079788358460681 
-5.702680875337225e-005 
-0.002191887842995315 
-0.002267797856464718 
-0.001034547542649065 
0.0005420916438367317 
9.705263964854774e-005 
-0.00349030818408077 
0.001026453785278982 
0.001722675963755837 
-0.001282977760608197 
0.0008505229512257552 
0.0007166703136663667 
-0.001582098441924648 
0.0003044958186572839 
4.40836697249732e-005 
0.0006848956502451507 
0.0007801723005713571 
-0.003961863363100715 
-0.001285851060364668 
-0.0004372508306952774 
-0.001750587528842246 
0.003942220245924306 
-0.0003728491852269179 
0.0006240452696533366 
0.0003931794140076768 
0.002394318175666923 
0.001160946820668282 
7.097018767737788e-005 
-0.0006640733346831446 
0.00182246440086003 
-0.000110747974127558 
0.0009012373774781253 
-0.001326364558862842 
-0.0001745992991014805 
0.003478675054436681 
-0.0005390361452858429 
-0.0006959826130726038 
-0.0007660908392690618 
-0.0006528798434912401 
0.002298961154922542 
0.001265744692409283 
0.001260396246369192 
0.00156885644066095 
-0.00163467747663421 
0.003126940592144163 
0.001011787329373343 
0.0007002112538259709 
0.00154191046378319 
0.00141926912822269 
0.001064482615768491 
0.0005974941737391755 
-0.002396643457360635 
7.298597805718118e-005 
0.001766527473769153 
0.001522347127329686 
-0.000171610450632909 
0.001181372460441368 
0.00060408206622188 
-0.0005844739694242455 
0.001237758871730997 
0.0002912250279830736 
0.002554991122110226 
-0.00278018718010625 
